<?xml version="1.0"?>
<opencv_storage>
<cascade type_id="opencv-haar-classifier">
  <size>
    130 40</size>
  <stages>
    <_>
      <!-- stage 0 -->
      <trees>
        <_>
          <!-- tree 0 -->
          <_>
            <!-- root node -->
            <feature>
              <rects>
                <_>
                  31 1 17 39 -1.</_>
                <_>
                  31 14 17 13 3.</_></rects>
              <tilted>0</tilted></feature>
            <threshold>-0.0359920188784599</threshold>
            <left_val>0.8173512220382690</left_val>
            <right_val>-0.9999964833259583</right_val></_></_></trees>
      <stage_threshold>0.8173512220382690</stage_threshold>
      <parent>-1</parent>
      <next>-1</next></_>
    <_>
      <!-- stage 1 -->
      <trees>
        <_>
          <!-- tree 0 -->
          <_>
            <!-- root node -->
            <feature>
              <rects>
                <_>
                  2 5 36 33 -1.</_>
                <_>
                  14 5 12 33 3.</_></rects>
              <tilted>0</tilted></feature>
            <threshold>-0.0673274919390678</threshold>
            <left_val>0.9288415908813477</left_val>
            <right_val>-0.9080166220664978</right_val></_></_>
        <_>
          <!-- tree 1 -->
          <_>
            <!-- root node -->
            <feature>
              <rects>
                <_>
                  49 6 40 24 -1.</_>
                <_>
                  69 6 20 12 2.</_>
                <_>
                  49 18 20 12 2.</_></rects>
              <tilted>0</tilted></feature>
            <threshold>-9.9339243024587631e-004</threshold>
            <left_val>-0.9175884127616882</left_val>
            <right_val>0.3897135853767395</right_val></_></_></trees>
      <stage_threshold>-0.5183029174804688</stage_threshold>
      <parent>0</parent>
      <next>-1</next></_>
    <_>
      <!-- stage 2 -->
      <trees>
        <_>
          <!-- tree 0 -->
          <_>
            <!-- root node -->
            <feature>
              <rects>
                <_>
                  21 3 18 27 -1.</_>
                <_>
                  30 3 9 27 2.</_></rects>
              <tilted>0</tilted></feature>
            <threshold>0.0183994695544243</threshold>
            <left_val>-0.8828790783882141</left_val>
            <right_val>0.8702806830406189</right_val></_></_>
        <_>
          <!-- tree 1 -->
          <_>
            <!-- root node -->
            <feature>
              <rects>
                <_>
                  112 18 18 21 -1.</_>
                <_>
                  112 18 9 21 2.</_></rects>
              <tilted>0</tilted></feature>
            <threshold>-6.0197398997843266e-003</threshold>
            <left_val>0.5458571910858154</left_val>
            <right_val>-0.6501985788345337</right_val></_></_>
        <_>
          <!-- tree 2 -->
          <_>
            <!-- root node -->
            <feature>
              <rects>
                <_>
                  0 1 18 39 -1.</_>
                <_>
                  9 1 9 39 2.</_></rects>
              <tilted>0</tilted></feature>
            <threshold>-0.0280682500451803</threshold>
            <left_val>0.7890701293945313</left_val>
            <right_val>-0.8646057844161987</right_val></_></_></trees>
      <stage_threshold>-1.2016279697418213</stage_threshold>
      <parent>1</parent>
      <next>-1</next></_>
    <_>
      <!-- stage 3 -->
      <trees>
        <_>
          <!-- tree 0 -->
          <_>
            <!-- root node -->
            <feature>
              <rects>
                <_>
                  0 22 20 16 -1.</_>
                <_>
                  10 22 10 16 2.</_></rects>
              <tilted>0</tilted></feature>
            <threshold>-0.0144952498376369</threshold>
            <left_val>0.6785612702369690</left_val>
            <right_val>-0.9310399889945984</right_val></_></_>
        <_>
          <!-- tree 1 -->
          <_>
            <!-- root node -->
            <feature>
              <rects>
                <_>
                  47 5 52 30 -1.</_>
                <_>
                  73 5 26 15 2.</_>
                <_>
                  47 20 26 15 2.</_></rects>
              <tilted>0</tilted></feature>
            <threshold>8.2643656060099602e-003</threshold>
            <left_val>-0.8362637162208557</left_val>
            <right_val>0.2018356025218964</right_val></_></_>
        <_>
          <!-- tree 2 -->
          <_>
            <!-- root node -->
            <feature>
              <rects>
                <_>
                  45 19 36 12 -1.</_>
                <_>
                  63 19 18 12 2.</_></rects>
              <tilted>0</tilted></feature>
            <threshold>-6.5850280225276947e-003</threshold>
            <left_val>0.5692446231842041</left_val>
            <right_val>-0.9757555723190308</right_val></_></_></trees>
      <stage_threshold>-0.1599598973989487</stage_threshold>
      <parent>2</parent>
      <next>-1</next></_>
    <_>
      <!-- stage 4 -->
      <trees>
        <_>
          <!-- tree 0 -->
          <_>
            <!-- root node -->
            <feature>
              <rects>
                <_>
                  7 8 62 6 -1.</_>
                <_>
                  38 8 31 6 2.</_></rects>
              <tilted>0</tilted></feature>
            <threshold>0.0165014807134867</threshold>
            <left_val>-0.9197202920913696</left_val>
            <right_val>0.7067428827285767</right_val></_></_>
        <_>
          <!-- tree 1 -->
          <_>
            <!-- root node -->
            <feature>
              <rects>
                <_>
                  93 1 33 29 -1.</_>
                <_>
                  104 1 11 29 3.</_></rects>
              <tilted>0</tilted></feature>
            <threshold>7.7825570479035378e-003</threshold>
            <left_val>0.1214962005615234</left_val>
            <right_val>-0.9073891043663025</right_val></_></_>
        <_>
          <!-- tree 2 -->
          <_>
            <!-- root node -->
            <feature>
              <rects>
                <_>
                  3 14 36 22 -1.</_>
                <_>
                  15 14 12 22 3.</_></rects>
              <tilted>0</tilted></feature>
            <threshold>-0.0482321493327618</threshold>
            <left_val>0.7770761251449585</left_val>
            <right_val>-0.7975127100944519</right_val></_></_>
        <_>
          <!-- tree 3 -->
          <_>
            <!-- root node -->
            <feature>
              <rects>
                <_>
                  35 6 94 28 -1.</_>
                <_>
                  82 6 47 14 2.</_>
                <_>
                  35 20 47 14 2.</_></rects>
              <tilted>0</tilted></feature>
            <threshold>-0.0430301614105701</threshold>
            <left_val>-1.</left_val>
            <right_val>0.0421232283115387</right_val></_></_>
        <_>
          <!-- tree 4 -->
          <_>
            <!-- root node -->
            <feature>
              <rects>
                <_>
                  10 6 76 28 -1.</_>
                <_>
                  10 6 38 14 2.</_>
                <_>
                  48 20 38 14 2.</_></rects>
              <tilted>0</tilted></feature>
            <threshold>-0.0199201703071594</threshold>
            <left_val>0.5254495739936829</left_val>
            <right_val>-0.9999982714653015</right_val></_></_></trees>
      <stage_threshold>-1.0281640291213989</stage_threshold>
      <parent>3</parent>
      <next>-1</next></_>
    <_>
      <!-- stage 5 -->
      <trees>
        <_>
          <!-- tree 0 -->
          <_>
            <!-- root node -->
            <feature>
              <rects>
                <_>
                  21 7 18 32 -1.</_>
                <_>
                  30 7 9 32 2.</_></rects>
              <tilted>0</tilted></feature>
            <threshold>0.0261112600564957</threshold>
            <left_val>-0.8300874829292297</left_val>
            <right_val>0.6650971770286560</right_val></_></_>
        <_>
          <!-- tree 1 -->
          <_>
            <!-- root node -->
            <feature>
              <rects>
                <_>
                  53 19 40 21 -1.</_>
                <_>
                  53 26 40 7 3.</_></rects>
              <tilted>0</tilted></feature>
            <threshold>-0.0288852602243423</threshold>
            <left_val>0.7029576897621155</left_val>
            <right_val>-0.6855254769325256</right_val></_></_>
        <_>
          <!-- tree 2 -->
          <_>
            <!-- root node -->
            <feature>
              <rects>
                <_>
                  10 0 102 40 -1.</_>
                <_>
                  61 0 51 40 2.</_></rects>
              <tilted>0</tilted></feature>
            <threshold>0.0594065003097057</threshold>
            <left_val>-0.9057580828666687</left_val>
            <right_val>0.5396330952644348</right_val></_></_></trees>
      <stage_threshold>-0.9759799838066101</stage_threshold>
      <parent>4</parent>
      <next>-1</next></_>
    <_>
      <!-- stage 6 -->
      <trees>
        <_>
          <!-- tree 0 -->
          <_>
            <!-- root node -->
            <feature>
              <rects>
                <_>
                  39 0 32 30 -1.</_>
                <_>
                  39 15 32 15 2.</_></rects>
              <tilted>0</tilted></feature>
            <threshold>-0.0515156202018261</threshold>
            <left_val>0.5992295742034912</left_val>
            <right_val>-0.9547637104988098</right_val></_></_>
        <_>
          <!-- tree 1 -->
          <_>
            <!-- root node -->
            <feature>
              <rects>
                <_>
                  92 17 16 23 -1.</_>
                <_>
                  92 17 8 23 2.</_></rects>
              <tilted>0</tilted></feature>
            <threshold>2.4158030282706022e-003</threshold>
            <left_val>0.0101193003356457</left_val>
            <right_val>-0.4288221895694733</right_val></_></_>
        <_>
          <!-- tree 2 -->
          <_>
            <!-- root node -->
            <feature>
              <rects>
                <_>
                  22 17 16 23 -1.</_>
                <_>
                  30 17 8 23 2.</_></rects>
              <tilted>0</tilted></feature>
            <threshold>0.0158889796584845</threshold>
            <left_val>-0.8496270179748535</left_val>
            <right_val>0.6307641267776489</right_val></_></_></trees>
      <stage_threshold>-0.6792196035385132</stage_threshold>
      <parent>5</parent>
      <next>-1</next></_>
    <_>
      <!-- stage 7 -->
      <trees>
        <_>
          <!-- tree 0 -->
          <_>
            <!-- root node -->
            <feature>
              <rects>
                <_>
                  39 10 40 30 -1.</_>
                <_>
                  39 20 40 10 3.</_></rects>
              <tilted>0</tilted></feature>
            <threshold>-0.0633291900157928</threshold>
            <left_val>0.5937979221343994</left_val>
            <right_val>-0.7841324210166931</right_val></_></_>
        <_>
          <!-- tree 1 -->
          <_>
            <!-- root node -->
            <feature>
              <rects>
                <_>
                  65 14 21 16 -1.</_>
                <_>
                  72 14 7 16 3.</_></rects>
              <tilted>0</tilted></feature>
            <threshold>-0.0154073899611831</threshold>
            <left_val>0.5991957783699036</left_val>
            <right_val>-0.2644811868667603</right_val></_></_>
        <_>
          <!-- tree 2 -->
          <_>
            <!-- root node -->
            <feature>
              <rects>
                <_>
                  49 0 20 28 -1.</_>
                <_>
                  49 0 10 14 2.</_>
                <_>
                  59 14 10 14 2.</_></rects>
              <tilted>0</tilted></feature>
            <threshold>-9.7453575581312180e-003</threshold>
            <left_val>0.7364947795867920</left_val>
            <right_val>-0.7556278705596924</right_val></_></_></trees>
      <stage_threshold>-0.4263113141059876</stage_threshold>
      <parent>6</parent>
      <next>-1</next></_>
    <_>
      <!-- stage 8 -->
      <trees>
        <_>
          <!-- tree 0 -->
          <_>
            <!-- root node -->
            <feature>
              <rects>
                <_>
                  46 2 27 16 -1.</_>
                <_>
                  55 2 9 16 3.</_></rects>
              <tilted>0</tilted></feature>
            <threshold>5.4621039889752865e-003</threshold>
            <left_val>-0.8132055997848511</left_val>
            <right_val>0.5526660084724426</right_val></_></_>
        <_>
          <!-- tree 1 -->
          <_>
            <!-- root node -->
            <feature>
              <rects>
                <_>
                  80 21 26 18 -1.</_>
                <_>
                  80 27 26 6 3.</_></rects>
              <tilted>0</tilted></feature>
            <threshold>-0.0145569397136569</threshold>
            <left_val>0.3844740986824036</left_val>
            <right_val>-0.5165532827377319</right_val></_></_>
        <_>
          <!-- tree 2 -->
          <_>
            <!-- root node -->
            <feature>
              <rects>
                <_>
                  27 3 75 12 -1.</_>
                <_>
                  52 3 25 12 3.</_></rects>
              <tilted>0</tilted></feature>
            <threshold>0.0231910701841116</threshold>
            <left_val>0.3799343109130859</left_val>
            <right_val>-1.0000009536743164</right_val></_></_>
        <_>
          <!-- tree 3 -->
          <_>
            <!-- root node -->
            <feature>
              <rects>
                <_>
                  75 14 10 17 -1.</_>
                <_>
                  75 14 5 17 2.</_></rects>
              <tilted>0</tilted></feature>
            <threshold>-3.6030719056725502e-003</threshold>
            <left_val>0.3897953033447266</left_val>
            <right_val>-0.3432706892490387</right_val></_></_>
        <_>
          <!-- tree 4 -->
          <_>
            <!-- root node -->
            <feature>
              <rects>
                <_>
                  0 8 33 14 -1.</_>
                <_>
                  11 8 11 14 3.</_></rects>
              <tilted>0</tilted></feature>
            <threshold>-0.0238316804170609</threshold>
            <left_val>0.5967841744422913</left_val>
            <right_val>-0.7268456816673279</right_val></_></_>
        <_>
          <!-- tree 5 -->
          <_>
            <!-- root node -->
            <feature>
              <rects>
                <_>
                  92 16 6 13 -1.</_>
                <_>
                  94 16 2 13 3.</_></rects>
              <tilted>0</tilted></feature>
            <threshold>1.5648009721189737e-003</threshold>
            <left_val>-0.3256883919239044</left_val>
            <right_val>0.8509156107902527</right_val></_></_>
        <_>
          <!-- tree 6 -->
          <_>
            <!-- root node -->
            <feature>
              <rects>
                <_>
                  31 18 9 10 -1.</_>
                <_>
                  34 18 3 10 3.</_></rects>
              <tilted>0</tilted></feature>
            <threshold>4.4717998243868351e-003</threshold>
            <left_val>-0.4262756109237671</left_val>
            <right_val>0.8985025882720947</right_val></_></_></trees>
      <stage_threshold>-0.7140607833862305</stage_threshold>
      <parent>7</parent>
      <next>-1</next></_>
    <_>
      <!-- stage 9 -->
      <trees>
        <_>
          <!-- tree 0 -->
          <_>
            <!-- root node -->
            <feature>
              <rects>
                <_>
                  45 12 10 24 -1.</_>
                <_>
                  50 12 5 24 2.</_></rects>
              <tilted>0</tilted></feature>
            <threshold>3.5096229985356331e-003</threshold>
            <left_val>-0.8464124798774719</left_val>
            <right_val>0.6039152145385742</right_val></_></_>
        <_>
          <!-- tree 1 -->
          <_>
            <!-- root node -->
            <feature>
              <rects>
                <_>
                  14 8 116 16 -1.</_>
                <_>
                  72 8 58 8 2.</_>
                <_>
                  14 16 58 8 2.</_></rects>
              <tilted>0</tilted></feature>
            <threshold>0.0298867300152779</threshold>
            <left_val>-0.4609226882457733</left_val>
            <right_val>0.5428768992424011</right_val></_></_>
        <_>
          <!-- tree 2 -->
          <_>
            <!-- root node -->
            <feature>
              <rects>
                <_>
                  37 28 38 12 -1.</_>
                <_>
                  37 34 38 6 2.</_></rects>
              <tilted>0</tilted></feature>
            <threshold>0.0288143306970596</threshold>
            <left_val>-0.6215919256210327</left_val>
            <right_val>0.6554238200187683</right_val></_></_></trees>
      <stage_threshold>-0.6519113779067993</stage_threshold>
      <parent>8</parent>
      <next>-1</next></_>
    <_>
      <!-- stage 10 -->
      <trees>
        <_>
          <!-- tree 0 -->
          <_>
            <!-- root node -->
            <feature>
              <rects>
                <_>
                  0 6 118 20 -1.</_>
                <_>
                  0 6 59 10 2.</_>
                <_>
                  59 16 59 10 2.</_></rects>
              <tilted>0</tilted></feature>
            <threshold>-0.0448052100837231</threshold>
            <left_val>0.5621079802513123</left_val>
            <right_val>-0.6893426179885864</right_val></_></_>
        <_>
          <!-- tree 1 -->
          <_>
            <!-- root node -->
            <feature>
              <rects>
                <_>
                  103 29 22 4 -1.</_>
                <_>
                  103 29 11 4 2.</_></rects>
              <tilted>0</tilted></feature>
            <threshold>1.8282029777765274e-003</threshold>
            <left_val>0.0951480269432068</left_val>
            <right_val>-0.8337416052818298</right_val></_></_>
        <_>
          <!-- tree 2 -->
          <_>
            <!-- root node -->
            <feature>
              <rects>
                <_>
                  5 29 22 4 -1.</_>
                <_>
                  16 29 11 4 2.</_></rects>
              <tilted>0</tilted></feature>
            <threshold>-2.8137769550085068e-003</threshold>
            <left_val>0.4886738955974579</left_val>
            <right_val>-0.7953677773475647</right_val></_></_>
        <_>
          <!-- tree 3 -->
          <_>
            <!-- root node -->
            <feature>
              <rects>
                <_>
                  52 4 78 27 -1.</_>
                <_>
                  52 4 39 27 2.</_></rects>
              <tilted>0</tilted></feature>
            <threshold>-9.9305249750614166e-003</threshold>
            <left_val>0.2090954035520554</left_val>
            <right_val>-0.7571486234664917</right_val></_></_>
        <_>
          <!-- tree 4 -->
          <_>
            <!-- root node -->
            <feature>
              <rects>
                <_>
                  18 1 18 19 -1.</_>
                <_>
                  27 1 9 19 2.</_></rects>
              <tilted>0</tilted></feature>
            <threshold>0.0130310701206326</threshold>
            <left_val>-0.8223385214805603</left_val>
            <right_val>0.5068752169609070</right_val></_></_></trees>
      <stage_threshold>-0.7187638282775879</stage_threshold>
      <parent>9</parent>
      <next>-1</next></_></stages></cascade>
</opencv_storage>
